<?xml version="1.0" encoding="utf-8"?>
<Root>
  <ActivationFunctions>
    <Fn id="0" name="PureLinear" prob="1" />
  </ActivationFunctions>
  <Networks>
    <Network id="406924" birthGen="492" fitness="7377371.3954393882">
      <Nodes>
        <Node type="bias" id="0" />
        <Node type="in" id="1" />
        <Node type="in" id="2" />
        <Node type="in" id="3" />
        <Node type="out" id="4" />
        <Node type="hid" id="20" />
        <Node type="hid" id="55" />
        <Node type="hid" id="149" />
        <Node type="hid" id="152" />
        <Node type="hid" id="272" />
        <Node type="hid" id="280" />
        <Node type="hid" id="338" />
        <Node type="hid" id="1646" />
        <Node type="hid" id="1797" />
        <Node type="hid" id="1869" />
      </Nodes>
      <Connections>
        <Con id="8" src="3" tgt="4" wght="1.0000017192052566" />
        <Con id="14" src="0" tgt="4" wght="-0.14862069887001692" />
        <Con id="22" src="20" tgt="4" wght="0.611488952708419" />
        <Con id="57" src="55" tgt="20" wght="5" />
        <Con id="82" src="2" tgt="55" wght="0.042229788236472922" />
        <Con id="121" src="55" tgt="4" wght="-0.085877736089992371" />
        <Con id="150" src="1" tgt="149" wght="1.8264631877919229" />
        <Con id="151" src="149" tgt="20" wght="5" />
        <Con id="153" src="2" tgt="152" wght="0.020394753964336994" />
        <Con id="154" src="152" tgt="55" wght="4.9800840923249963" />
        <Con id="273" src="1" tgt="272" wght="0.10423960685590893" />
        <Con id="281" src="152" tgt="280" wght="-1.1217015145824736" />
        <Con id="282" src="280" tgt="4" wght="4.9785229274146374" />
        <Con id="339" src="272" tgt="338" wght="4.9987000089491165" />
        <Con id="340" src="338" tgt="55" wght="4.9948839223959371" />
        <Con id="1799" src="1797" tgt="4" wght="4.99447422529772" />
        <Con id="1871" src="1869" tgt="1646" wght="5" />
        <Con id="2228" src="272" tgt="1869" wght="-1.3108305564905143" />
      </Connections>
    </Network>
  </Networks>
</Root>