<?xml version="1.0" encoding="utf-8"?>
<Root>
  <ActivationFunctions>
    <Fn id="0" name="PureLinear" prob="1" />
  </ActivationFunctions>
  <Networks>
    <Network id="160849" birthGen="195" fitness="24771962.366275337">
      <Nodes>
        <Node type="bias" id="0" />
        <Node type="in" id="1" />
        <Node type="in" id="2" />
        <Node type="in" id="3" />
        <Node type="out" id="4" />
        <Node type="hid" id="55" />
        <Node type="hid" id="130" />
        <Node type="hid" id="306" />
        <Node type="hid" id="329" />
        <Node type="hid" id="337" />
        <Node type="hid" id="352" />
        <Node type="hid" id="376" />
        <Node type="hid" id="454" />
        <Node type="hid" id="527" />
        <Node type="hid" id="539" />
        <Node type="hid" id="596" />
        <Node type="hid" id="732" />
      </Nodes>
      <Connections>
        <Con id="8" src="3" tgt="4" wght="1.0000388989222566" />
        <Con id="10" src="0" tgt="4" wght="-0.060563957000720148" />
        <Con id="14" src="1" tgt="4" wght="4.9548712952588039" />
        <Con id="22" src="2" tgt="4" wght="0.066355257250906088" />
        <Con id="330" src="55" tgt="329" wght="0.24999185756248171" />
        <Con id="331" src="329" tgt="55" wght="5" />
        <Con id="338" src="1" tgt="337" wght="-1.8238300144514763" />
        <Con id="353" src="337" tgt="352" wght="4.9932865423589519" />
        <Con id="377" src="306" tgt="376" wght="4.9807712474564489" />
        <Con id="455" src="2" tgt="454" wght="2.7699066356287165" />
        <Con id="456" src="454" tgt="130" wght="4.9930570069855236" />
        <Con id="528" src="55" tgt="527" wght="4.1486627595202874" />
        <Con id="529" src="527" tgt="55" wght="4.9940597447093431" />
        <Con id="540" src="1" tgt="539" wght="3.1156819253756218" />
        <Con id="541" src="539" tgt="4" wght="5" />
        <Con id="597" src="527" tgt="596" wght="4.9897815022485732" />
        <Con id="655" src="329" tgt="527" wght="-0.02132265985995634" />
        <Con id="733" src="55" tgt="732" wght="0.0092292549687467487" />
      </Connections>
    </Network>
  </Networks>
</Root>