<?xml version="1.0" encoding="utf-8"?>
<Root>
  <ActivationFunctions>
    <Fn id="0" name="PureLinear" prob="1" />
  </ActivationFunctions>
  <Networks>
    <Network id="16695249" birthGen="20365" fitness="1478181.9600177212">
      <Nodes>
        <Node type="bias" id="0" />
        <Node type="in" id="1" />
        <Node type="in" id="2" />
        <Node type="in" id="3" />
        <Node type="out" id="4" />
        <Node type="hid" id="184" />
        <Node type="hid" id="1017" />
        <Node type="hid" id="10478" />
        <Node type="hid" id="10556" />
        <Node type="hid" id="10581" />
        <Node type="hid" id="17806" />
        <Node type="hid" id="17995" />
        <Node type="hid" id="21759" />
        <Node type="hid" id="23236" />
        <Node type="hid" id="24628" />
        <Node type="hid" id="26639" />
        <Node type="hid" id="26704" />
        <Node type="hid" id="27332" />
        <Node type="hid" id="27403" />
      </Nodes>
      <Connections>
        <Con id="9" src="3" tgt="4" wght="1.0000911939156054" />
        <Con id="17" src="1" tgt="4" wght="-3.7389263139207056" />
        <Con id="1018" src="184" tgt="1017" wght="0.14348694303108395" />
        <Con id="1019" src="1017" tgt="184" wght="5" />
        <Con id="10480" src="10478" tgt="4" wght="4.784626936553467" />
        <Con id="10582" src="10556" tgt="10581" wght="3.7795443777455566" />
        <Con id="10583" src="10581" tgt="4" wght="-3.6447826951802145" />
        <Con id="10585" src="2" tgt="10556" wght="-0.043072202698819187" />
        <Con id="10638" src="184" tgt="10556" wght="-0.021321325184920928" />
        <Con id="10758" src="10581" tgt="184" wght="-0.043219977649222772" />
        <Con id="10798" src="0" tgt="10478" wght="-0.0085769876327155513" />
        <Con id="11236" src="10581" tgt="10581" wght="-0.028441785185000557" />
        <Con id="11526" src="2" tgt="10478" wght="-0.054090516302133129" />
        <Con id="14075" src="184" tgt="10581" wght="0.0087925212863311283" />
        <Con id="17987" src="1" tgt="17806" wght="-0.013848780295801428" />
        <Con id="17994" src="10556" tgt="17806" wght="0.05432137848469791" />
        <Con id="17996" src="17806" tgt="17995" wght="-0.20366440617258086" />
        <Con id="17997" src="17995" tgt="10581" wght="4.90959469914819" />
        <Con id="18129" src="184" tgt="17806" wght="0.032143576714140476" />
        <Con id="21760" src="17995" tgt="21759" wght="-2.000462942964996" />
        <Con id="21761" src="21759" tgt="4" wght="5" />
        <Con id="23315" src="23236" tgt="184" wght="-0.40885516830785823" />
        <Con id="24629" src="184" tgt="24628" wght="-0.038461864011410635" />
        <Con id="24630" src="24628" tgt="23236" wght="4.9654637757104192" />
        <Con id="26226" src="17995" tgt="23236" wght="3.8454827239309877" />
        <Con id="26640" src="17995" tgt="26639" wght="-0.0670957132619781" />
        <Con id="26705" src="26639" tgt="26704" wght="4.9815894472467921" />
        <Con id="26706" src="26704" tgt="184" wght="5" />
        <Con id="27333" src="17806" tgt="27332" wght="-0.33680641900539748" />
        <Con id="27334" src="27332" tgt="23236" wght="5" />
        <Con id="27404" src="23236" tgt="27403" wght="0.10102978420238382" />
        <Con id="27405" src="27403" tgt="4" wght="5" />
        <Con id="27882" src="23236" tgt="27332" wght="-0.020506155546825493" />
        <Con id="27900" src="26704" tgt="27332" wght="0.46021126971609849" />
      </Connections>
    </Network>
  </Networks>
</Root>