<?xml version="1.0" encoding="utf-8"?>
<Root>
  <ActivationFunctions>
    <Fn id="0" name="PureLinear" prob="1" />
  </ActivationFunctions>
  <Networks>
    <Network id="263239" birthGen="318" fitness="47445992.302635178">
      <Nodes>
        <Node type="bias" id="0" />
        <Node type="in" id="1" />
        <Node type="in" id="2" />
        <Node type="in" id="3" />
        <Node type="out" id="4" />
        <Node type="hid" id="13" />
        <Node type="hid" id="38" />
        <Node type="hid" id="57" />
        <Node type="hid" id="61" />
        <Node type="hid" id="67" />
        <Node type="hid" id="120" />
        <Node type="hid" id="178" />
        <Node type="hid" id="199" />
        <Node type="hid" id="212" />
        <Node type="hid" id="247" />
        <Node type="hid" id="252" />
        <Node type="hid" id="441" />
        <Node type="hid" id="456" />
        <Node type="hid" id="560" />
        <Node type="hid" id="579" />
      </Nodes>
      <Connections>
        <Con id="12" src="2" tgt="4" wght="-0.01843888712458662" />
        <Con id="14" src="0" tgt="13" wght="0.54155777540021077" />
        <Con id="21" src="0" tgt="4" wght="4.9317118044959907" />
        <Con id="39" src="13" tgt="38" wght="-0.87993746010301177" />
        <Con id="121" src="61" tgt="120" wght="-3.2889326797702525" />
        <Con id="122" src="120" tgt="4" wght="4.9799152106378211" />
        <Con id="200" src="38" tgt="199" wght="-0.059601990963266405" />
        <Con id="206" src="2" tgt="120" wght="-0.0036711928632515343" />
        <Con id="214" src="212" tgt="4" wght="4.98369440630189" />
        <Con id="248" src="199" tgt="247" wght="4.9734023788682817" />
        <Con id="249" src="247" tgt="38" wght="-3.3006471048565165" />
        <Con id="253" src="0" tgt="252" wght="0.58243004906772955" />
        <Con id="254" src="252" tgt="178" wght="2.070242894066129" />
        <Con id="273" src="67" tgt="61" wght="2.3051000051100035" />
        <Con id="377" src="38" tgt="67" wght="0.019730025066193486" />
        <Con id="442" src="57" tgt="441" wght="4.9699148723882818" />
        <Con id="458" src="456" tgt="57" wght="4.9765035516254921" />
        <Con id="459" src="0" tgt="57" wght="2.8168138472131865" />
        <Con id="510" src="3" tgt="441" wght="0.0077168894459717008" />
        <Con id="547" src="0" tgt="456" wght="2.6326195347214281" />
        <Con id="561" src="441" tgt="560" wght="4.97284233605219" />
        <Con id="562" src="560" tgt="4" wght="4.9885799237998105" />
        <Con id="581" src="579" tgt="120" wght="4.9783594320659956" />
        <Con id="1014" src="67" tgt="441" wght="-3.0750883030487608" />
      </Connections>
    </Network>
  </Networks>
</Root>