<?xml version="1.0" encoding="utf-8"?>
<Root>
  <ActivationFunctions>
    <Fn id="0" name="PureLinear" prob="1" />
  </ActivationFunctions>
  <Networks>
    <Network id="1772606" birthGen="2157" fitness="2925693.3418871863">
      <Nodes>
        <Node type="bias" id="0" />
        <Node type="in" id="1" />
        <Node type="in" id="2" />
        <Node type="in" id="3" />
        <Node type="out" id="4" />
        <Node type="hid" id="9" />
        <Node type="hid" id="24" />
        <Node type="hid" id="44" />
        <Node type="hid" id="58" />
        <Node type="hid" id="514" />
        <Node type="hid" id="626" />
        <Node type="hid" id="668" />
        <Node type="hid" id="1110" />
        <Node type="hid" id="1521" />
        <Node type="hid" id="2843" />
        <Node type="hid" id="3216" />
      </Nodes>
      <Connections>
        <Con id="8" src="3" tgt="4" wght="0.99974600958965532" />
        <Con id="12" src="0" tgt="4" wght="-0.338958749649034" />
        <Con id="25" src="2" tgt="24" wght="0.016161166707935326" />
        <Con id="26" src="24" tgt="4" wght="3.9181692058871684" />
        <Con id="60" src="58" tgt="4" wght="-0.31107247008492356" />
        <Con id="275" src="9" tgt="58" wght="-3.6965361041679254" />
        <Con id="623" src="24" tgt="44" wght="3.0831424881749814" />
        <Con id="669" src="514" tgt="668" wght="4.7254802084267435" />
        <Con id="670" src="668" tgt="626" wght="4.9841701967441434" />
        <Con id="958" src="24" tgt="514" wght="-0.042880632549506865" />
        <Con id="1111" src="1" tgt="1110" wght="0.053307079894877617" />
        <Con id="1112" src="1110" tgt="24" wght="5" />
        <Con id="1221" src="24" tgt="626" wght="-1.2127588739312138" />
        <Con id="1282" src="44" tgt="514" wght="-0.07473589936144874" />
        <Con id="1522" src="626" tgt="1521" wght="-0.10323302640012111" />
        <Con id="1523" src="1521" tgt="9" wght="4.99824043360711" />
        <Con id="1672" src="58" tgt="668" wght="0.07221757995455215" />
        <Con id="1701" src="44" tgt="626" wght="-0.27186313612446905" />
        <Con id="2844" src="24" tgt="2843" wght="-0.17954049447616971" />
        <Con id="2845" src="2843" tgt="626" wght="4.9959474497091279" />
        <Con id="3217" src="514" tgt="3216" wght="-0.405087331845099" />
        <Con id="3593" src="2843" tgt="668" wght="-0.095288066406676877" />
        <Con id="4385" src="3216" tgt="44" wght="4.3257839934965334" />
        <Con id="5136" src="1110" tgt="58" wght="0.018809581703840828" />
      </Connections>
    </Network>
  </Networks>
</Root>