<?xml version="1.0" encoding="utf-8"?>
<Root>
  <ActivationFunctions>
    <Fn id="0" name="PureLinear" prob="1" />
  </ActivationFunctions>
  <Networks>
    <Network id="385204" birthGen="466" fitness="23378189.328818835">
      <Nodes>
        <Node type="bias" id="0" />
        <Node type="in" id="1" />
        <Node type="in" id="2" />
        <Node type="in" id="3" />
        <Node type="out" id="4" />
        <Node type="hid" id="13" />
        <Node type="hid" id="95" />
        <Node type="hid" id="151" />
        <Node type="hid" id="259" />
        <Node type="hid" id="317" />
        <Node type="hid" id="337" />
        <Node type="hid" id="427" />
        <Node type="hid" id="430" />
        <Node type="hid" id="476" />
        <Node type="hid" id="545" />
        <Node type="hid" id="629" />
        <Node type="hid" id="641" />
        <Node type="hid" id="728" />
        <Node type="hid" id="802" />
      </Nodes>
      <Connections>
        <Con id="8" src="3" tgt="4" wght="0.9999200630827968" />
        <Con id="14" src="0" tgt="13" wght="-4.9528145174337208" />
        <Con id="19" src="0" tgt="4" wght="-0.017397538136776251" />
        <Con id="67" src="13" tgt="4" wght="0.013492059799579143" />
        <Con id="152" src="2" tgt="151" wght="0.1479871820953696" />
        <Con id="153" src="151" tgt="13" wght="4.9491731395262555" />
        <Con id="260" src="1" tgt="259" wght="-2.9408981916886403" />
        <Con id="261" src="259" tgt="4" wght="4.9781392190385345" />
        <Con id="318" src="95" tgt="317" wght="-0.093441978671861631" />
        <Con id="319" src="317" tgt="4" wght="-3.7552052451547122" />
        <Con id="338" src="151" tgt="337" wght="1.492225749242897" />
        <Con id="339" src="337" tgt="13" wght="4.9935524241387581" />
        <Con id="376" src="95" tgt="151" wght="-0.060527146661494634" />
        <Con id="428" src="151" tgt="427" wght="-0.090109093296865533" />
        <Con id="429" src="427" tgt="95" wght="5" />
        <Con id="478" src="476" tgt="430" wght="-1.5629052971764068" />
        <Con id="497" src="317" tgt="151" wght="0.085598023649923333" />
        <Con id="546" src="317" tgt="545" wght="0.11506968445734095" />
        <Con id="630" src="545" tgt="629" wght="5" />
        <Con id="642" src="629" tgt="641" wght="5" />
        <Con id="643" src="641" tgt="151" wght="4.9930128592480569" />
        <Con id="730" src="728" tgt="151" wght="5" />
        <Con id="803" src="337" tgt="802" wght="0.0082300620614662364" />
        <Con id="804" src="802" tgt="728" wght="5" />
        <Con id="1230" src="95" tgt="641" wght="-0.0042866945318041413" />
      </Connections>
    </Network>
  </Networks>
</Root>