<?xml version="1.0" encoding="utf-8"?>
<Root>
  <ActivationFunctions>
    <Fn id="0" name="PureLinear" prob="1" />
  </ActivationFunctions>
  <Networks>
    <Network id="2774575" birthGen="3357" fitness="23343129.167116165">
      <Nodes>
        <Node type="bias" id="0" />
        <Node type="in" id="1" />
        <Node type="in" id="2" />
        <Node type="in" id="3" />
        <Node type="out" id="4" />
        <Node type="hid" id="10" />
        <Node type="hid" id="213" />
        <Node type="hid" id="552" />
        <Node type="hid" id="609" />
        <Node type="hid" id="737" />
        <Node type="hid" id="1071" />
        <Node type="hid" id="1097" />
        <Node type="hid" id="4294" />
      </Nodes>
      <Connections>
        <Con id="9" src="3" tgt="4" wght="0.95011564169776541" />
        <Con id="11" src="0" tgt="10" wght="0.81762944915695024" />
        <Con id="12" src="10" tgt="4" wght="4.9978086667186208" />
        <Con id="22" src="2" tgt="4" wght="0.0311901713706736" />
        <Con id="29" src="4" tgt="10" wght="0.0084993230473431221" />
        <Con id="55" src="10" tgt="10" wght="0.14792138389734702" />
        <Con id="553" src="1" tgt="552" wght="-4.023318446468541" />
        <Con id="554" src="552" tgt="213" wght="-2.3108976439915994" />
        <Con id="610" src="213" tgt="609" wght="4.995627281674901" />
        <Con id="649" src="1" tgt="213" wght="1.7146244606729144" />
        <Con id="738" src="609" tgt="737" wght="-3.5634100841884342" />
        <Con id="739" src="737" tgt="10" wght="4.9858686093491569" />
        <Con id="1072" src="1" tgt="1071" wght="0.090056500472418019" />
        <Con id="1099" src="1097" tgt="213" wght="1.0454682692494317" />
        <Con id="1464" src="1097" tgt="737" wght="0.023172338223170885" />
        <Con id="1689" src="609" tgt="1097" wght="-0.034988138280493165" />
        <Con id="4295" src="1071" tgt="4294" wght="-0.044910612362761747" />
        <Con id="4296" src="4294" tgt="737" wght="5" />
        <Con id="5150" src="4294" tgt="1097" wght="0.070141339217838342" />
        <Con id="6827" src="4294" tgt="4" wght="0.046111019944840043" />
        <Con id="6872" src="4294" tgt="1071" wght="-0.022078600789351265" />
      </Connections>
    </Network>
  </Networks>
</Root>