<?xml version="1.0" encoding="utf-8"?>
<Root>
  <ActivationFunctions>
    <Fn id="0" name="PureLinear" prob="1" />
  </ActivationFunctions>
  <Networks>
    <Network id="7292077" birthGen="8907" fitness="808249.66884862445">
      <Nodes>
        <Node type="bias" id="0" />
        <Node type="in" id="1" />
        <Node type="in" id="2" />
        <Node type="in" id="3" />
        <Node type="out" id="4" />
        <Node type="hid" id="9" />
        <Node type="hid" id="42" />
        <Node type="hid" id="75" />
        <Node type="hid" id="103" />
        <Node type="hid" id="106" />
        <Node type="hid" id="198" />
        <Node type="hid" id="227" />
        <Node type="hid" id="345" />
        <Node type="hid" id="425" />
        <Node type="hid" id="470" />
        <Node type="hid" id="694" />
        <Node type="hid" id="871" />
        <Node type="hid" id="1124" />
        <Node type="hid" id="1826" />
        <Node type="hid" id="2027" />
        <Node type="hid" id="2492" />
        <Node type="hid" id="6249" />
        <Node type="hid" id="6274" />
      </Nodes>
      <Connections>
        <Con id="8" src="3" tgt="4" wght="1.0013047560631934" />
        <Con id="15" src="2" tgt="4" wght="0.14660769915532235" />
        <Con id="16" src="1" tgt="4" wght="0.40372228550269107" />
        <Con id="23" src="3" tgt="9" wght="0.06091796190122379" />
        <Con id="77" src="75" tgt="9" wght="4.4543457337898378" />
        <Con id="108" src="106" tgt="4" wght="4.9967209065304283" />
        <Con id="199" src="9" tgt="198" wght="-0.00384219102159844" />
        <Con id="200" src="198" tgt="4" wght="4.2187827756765373" />
        <Con id="228" src="1" tgt="227" wght="4.2329387244086059" />
        <Con id="229" src="227" tgt="103" wght="4.4403625025923068" />
        <Con id="237" src="2" tgt="106" wght="0.066093471170910731" />
        <Con id="346" src="103" tgt="345" wght="-1.8010534985395632" />
        <Con id="426" src="106" tgt="425" wght="0.12779194661384377" />
        <Con id="459" src="425" tgt="106" wght="1.3144982561684426" />
        <Con id="471" src="425" tgt="470" wght="4.2685867158017921" />
        <Con id="472" src="470" tgt="103" wght="4.3791129537902043" />
        <Con id="559" src="345" tgt="42" wght="0.060934417249511728" />
        <Con id="695" src="42" tgt="694" wght="4.2102123175469224" />
        <Con id="696" src="694" tgt="75" wght="4.5858586873930509" />
        <Con id="872" src="425" tgt="871" wght="-4.6133976720303647" />
        <Con id="873" src="871" tgt="9" wght="4.9989012978857579" />
        <Con id="1027" src="470" tgt="470" wght="-0.1347389059419645" />
        <Con id="1078" src="694" tgt="103" wght="-0.61359311137582628" />
        <Con id="1827" src="198" tgt="1826" wght="-0.26438804466707549" />
        <Con id="1988" src="425" tgt="1826" wght="0.086127297597475408" />
        <Con id="2028" src="1826" tgt="2027" wght="2.7898934147766661" />
        <Con id="2493" src="1" tgt="2492" wght="0.042421902514296936" />
        <Con id="2494" src="2492" tgt="198" wght="4.7833817334630444" />
        <Con id="6251" src="6249" tgt="103" wght="5" />
        <Con id="6275" src="2027" tgt="6274" wght="-0.35687033145326108" />
        <Con id="6276" src="6274" tgt="6249" wght="5" />
        <Con id="6396" src="103" tgt="1124" wght="-0.52240912714730847" />
        <Con id="6398" src="1124" tgt="1826" wght="0.014244463716388002" />
        <Con id="6963" src="6274" tgt="4" wght="-0.22446341499916231" />
        <Con id="8378" src="694" tgt="871" wght="-0.11713943626825292" />
        <Con id="8792" src="6274" tgt="871" wght="2.8682616252454376" />
      </Connections>
    </Network>
  </Networks>
</Root>